#pragma once
#include <cstdarg>
namespace Eloquent {
    namespace ML {
        namespace Port {
            class RandomForestClassifier {
                public:
                    /**
                    * Predict class for features vector
                    */
                    int predict(float *x) {
                        uint8_t votes[2] = { 0 };
                        // tree #1
                        if (x[14] <= -0.8237012028694153) {
                            if (x[6] <= -1.9817145466804504) {
                                if (x[3] <= 1.2141265273094177) {
                                    if (x[9] <= -0.2916041314601898) {
                                        votes[1] += 1;
                                    }

                                    else {
                                        if (x[2] <= -2.633225679397583) {
                                            votes[1] += 1;
                                        }

                                        else {
                                            votes[0] += 1;
                                        }
                                    }
                                }

                                else {
                                    votes[1] += 1;
                                }
                            }

                            else {
                                if (x[5] <= -0.9395391345024109) {
                                    if (x[12] <= -0.9245743453502655) {
                                        if (x[12] <= -1.0360785722732544) {
                                            votes[1] += 1;
                                        }

                                        else {
                                            if (x[9] <= 0.1447868049144745) {
                                                votes[0] += 1;
                                            }

                                            else {
                                                if (x[9] <= 1.0578436255455017) {
                                                    votes[1] += 1;
                                                }

                                                else {
                                                    if (x[14] <= -0.9554500877857208) {
                                                        votes[1] += 1;
                                                    }

                                                    else {
                                                        if (x[1] <= 0.05883849412202835) {
                                                            votes[1] += 1;
                                                        }

                                                        else {
                                                            votes[0] += 1;
                                                        }
                                                    }
                                                }
                                            }
                                        }
                                    }

                                    else {
                                        if (x[4] <= -1.7394635081291199) {
                                            if (x[1] <= 1.0677221417427063) {
                                                if (x[11] <= 0.6437869071960449) {
                                                    if (x[8] <= 0.2991625964641571) {
                                                        if (x[9] <= -0.16556722670793533) {
                                                            votes[0] += 1;
                                                        }

                                                        else {
                                                            votes[1] += 1;
                                                        }
                                                    }

                                                    else {
                                                        if (x[14] <= -0.8543359935283661) {
                                                            votes[1] += 1;
                                                        }

                                                        else {
                                                            votes[0] += 1;
                                                        }
                                                    }
                                                }

                                                else {
                                                    if (x[6] <= 0.2993057668209076) {
                                                        if (x[9] <= -0.12197551503777504) {
                                                            votes[1] += 1;
                                                        }

                                                        else {
                                                            votes[1] += 1;
                                                        }
                                                    }

                                                    else {
                                                        if (x[5] <= -1.4433284997940063) {
                                                            votes[1] += 1;
                                                        }

                                                        else {
                                                            votes[0] += 1;
                                                        }
                                                    }
                                                }
                                            }

                                            else {
                                                votes[0] += 1;
                                            }
                                        }

                                        else {
                                            if (x[11] <= 0.9589232504367828) {
                                                if (x[0] <= -0.05296887084841728) {
                                                    if (x[9] <= -0.8279716968536377) {
                                                        votes[1] += 1;
                                                    }

                                                    else {
                                                        if (x[6] <= 0.2993057668209076) {
                                                            votes[0] += 1;
                                                        }

                                                        else {
                                                            votes[1] += 1;
                                                        }
                                                    }
                                                }

                                                else {
                                                    if (x[9] <= 1.0294142365455627) {
                                                        if (x[9] <= -0.38305196911096573) {
                                                            votes[1] += 1;
                                                        }

                                                        else {
                                                            votes[0] += 1;
                                                        }
                                                    }

                                                    else {
                                                        if (x[5] <= -1.168534278869629) {
                                                            votes[1] += 1;
                                                        }

                                                        else {
                                                            votes[0] += 1;
                                                        }
                                                    }
                                                }
                                            }

                                            else {
                                                if (x[4] <= -0.8235058784484863) {
                                                    if (x[12] <= -0.6005747020244598) {
                                                        votes[0] += 1;
                                                    }

                                                    else {
                                                        if (x[0] <= -0.2768960129469633) {
                                                            votes[0] += 1;
                                                        }

                                                        else {
                                                            votes[1] += 1;
                                                        }
                                                    }
                                                }

                                                else {
                                                    if (x[5] <= -1.1456347703933716) {
                                                        votes[1] += 1;
                                                    }

                                                    else {
                                                        if (x[1] <= -0.3889758884906769) {
                                                            votes[0] += 1;
                                                        }

                                                        else {
                                                            votes[1] += 1;
                                                        }
                                                    }
                                                }
                                            }
                                        }
                                    }
                                }

                                else {
                                    if (x[13] <= -0.38828007876873016) {
                                        if (x[6] <= 0.17925205826759338) {
                                            if (x[8] <= 0.1791200302541256) {
                                                if (x[11] <= 1.5309074521064758) {
                                                    if (x[10] <= 1.547570288181305) {
                                                        if (x[8] <= 0.059077465179143474) {
                                                            votes[1] += 1;
                                                        }

                                                        else {
                                                            votes[1] += 1;
                                                        }
                                                    }

                                                    else {
                                                        if (x[8] <= 0.059077465179143474) {
                                                            votes[1] += 1;
                                                        }

                                                        else {
                                                            votes[1] += 1;
                                                        }
                                                    }
                                                }

                                                else {
                                                    if (x[12] <= 0.4729878902435303) {
                                                        if (x[3] <= -1.2360039949417114) {
                                                            votes[1] += 1;
                                                        }

                                                        else {
                                                            votes[1] += 1;
                                                        }
                                                    }

                                                    else {
                                                        votes[0] += 1;
                                                    }
                                                }
                                            }

                                            else {
                                                if (x[14] <= -1.0059413313865662) {
                                                    votes[1] += 1;
                                                }

                                                else {
                                                    if (x[14] <= -0.9755797982215881) {
                                                        votes[0] += 1;
                                                    }

                                                    else {
                                                        votes[1] += 1;
                                                    }
                                                }
                                            }
                                        }

                                        else {
                                            if (x[12] <= -0.13480834662914276) {
                                                if (x[14] <= -0.9248861074447632) {
                                                    if (x[14] <= -1.0565489530563354) {
                                                        if (x[14] <= -1.7143824696540833) {
                                                            votes[1] += 1;
                                                        }

                                                        else {
                                                            votes[1] += 1;
                                                        }
                                                    }

                                                    else {
                                                        if (x[3] <= 1.7178916931152344) {
                                                            votes[1] += 1;
                                                        }

                                                        else {
                                                            votes[1] += 1;
                                                        }
                                                    }
                                                }

                                                else {
                                                    if (x[13] <= -0.8642359972000122) {
                                                        if (x[2] <= 0.0589709859341383) {
                                                            votes[1] += 1;
                                                        }

                                                        else {
                                                            votes[1] += 1;
                                                        }
                                                    }

                                                    else {
                                                        if (x[5] <= -0.8021420240402222) {
                                                            votes[0] += 1;
                                                        }

                                                        else {
                                                            votes[1] += 1;
                                                        }
                                                    }
                                                }
                                            }

                                            else {
                                                if (x[4] <= -0.13653762027388439) {
                                                    if (x[6] <= 0.2993057668209076) {
                                                        if (x[11] <= 0.796853095293045) {
                                                            votes[1] += 1;
                                                        }

                                                        else {
                                                            votes[0] += 1;
                                                        }
                                                    }

                                                    else {
                                                        votes[0] += 1;
                                                    }
                                                }

                                                else {
                                                    if (x[1] <= -0.38933485746383667) {
                                                        votes[0] += 1;
                                                    }

                                                    else {
                                                        if (x[13] <= -1.2084224224090576) {
                                                            votes[0] += 1;
                                                        }

                                                        else {
                                                            votes[1] += 1;
                                                        }
                                                    }
                                                }
                                            }
                                        }
                                    }

                                    else {
                                        if (x[7] <= 0.5393272489309311) {
                                            if (x[1] <= -0.6136907637119293) {
                                                if (x[4] <= -0.8464048206806183) {
                                                    if (x[7] <= 0.17925769463181496) {
                                                        votes[1] += 1;
                                                    }

                                                    else {
                                                        votes[0] += 1;
                                                    }
                                                }

                                                else {
                                                    votes[1] += 1;
                                                }
                                            }

                                            else {
                                                if (x[1] <= 1.0677221417427063) {
                                                    if (x[4] <= -0.11363868415355682) {
                                                        if (x[3] <= 1.0080408155918121) {
                                                            votes[0] += 1;
                                                        }

                                                        else {
                                                            votes[0] += 1;
                                                        }
                                                    }

                                                    else {
                                                        if (x[1] <= -0.27733638882637024) {
                                                            votes[1] += 1;
                                                        }

                                                        else {
                                                            votes[0] += 1;
                                                        }
                                                    }
                                                }

                                                else {
                                                    votes[1] += 1;
                                                }
                                            }
                                        }

                                        else {
                                            votes[0] += 1;
                                        }
                                    }
                                }
                            }
                        }

                        else {
                            if (x[4] <= 0.2985422611236572) {
                                if (x[0] <= -1.5123561024665833) {
                                    if (x[3] <= -0.48035623133182526) {
                                        if (x[10] <= -1.1668075323104858) {
                                            if (x[4] <= -0.5716175138950348) {
                                                if (x[12] <= -0.0029924914706498384) {
                                                    if (x[9] <= -1.3415957689285278) {
                                                        votes[0] += 1;
                                                    }

                                                    else {
                                                        if (x[9] <= -1.0700952410697937) {
                                                            votes[1] += 1;
                                                        }

                                                        else {
                                                            votes[0] += 1;
                                                        }
                                                    }
                                                }

                                                else {
                                                    if (x[13] <= 0.1583954393863678) {
                                                        if (x[12] <= 0.08817466907203197) {
                                                            votes[0] += 1;
                                                        }

                                                        else {
                                                            votes[1] += 1;
                                                        }
                                                    }

                                                    else {
                                                        if (x[4] <= -0.8006069362163544) {
                                                            votes[1] += 1;
                                                        }

                                                        else {
                                                            votes[0] += 1;
                                                        }
                                                    }
                                                }
                                            }

                                            else {
                                                if (x[2] <= -0.8383082151412964) {
                                                    if (x[14] <= -0.510066419839859) {
                                                        votes[0] += 1;
                                                    }

                                                    else {
                                                        if (x[2] <= -1.2877556085586548) {
                                                            votes[1] += 1;
                                                        }

                                                        else {
                                                            votes[1] += 1;
                                                        }
                                                    }
                                                }

                                                else {
                                                    if (x[13] <= -0.32752372324466705) {
                                                        if (x[2] <= -0.27685805037617683) {
                                                            votes[1] += 1;
                                                        }

                                                        else {
                                                            votes[0] += 1;
                                                        }
                                                    }

                                                    else {
                                                        if (x[7] <= 0.29928088188171387) {
                                                            votes[0] += 1;
                                                        }

                                                        else {
                                                            votes[0] += 1;
                                                        }
                                                    }
                                                }
                                            }
                                        }

                                        else {
                                            if (x[0] <= -2.8595105409622192) {
                                                if (x[13] <= -0.6514444947242737) {
                                                    if (x[4] <= -1.3272825479507446) {
                                                        if (x[4] <= -1.8768572211265564) {
                                                            votes[1] += 1;
                                                        }

                                                        else {
                                                            votes[1] += 1;
                                                        }
                                                    }

                                                    else {
                                                        if (x[5] <= 0.7550251334905624) {
                                                            votes[1] += 1;
                                                        }

                                                        else {
                                                            votes[0] += 1;
                                                        }
                                                    }
                                                }

                                                else {
                                                    if (x[4] <= -0.8464048206806183) {
                                                        if (x[8] <= -1.5614970922470093) {
                                                            votes[1] += 1;
                                                        }

                                                        else {
                                                            votes[1] += 1;
                                                        }
                                                    }

                                                    else {
                                                        if (x[9] <= 0.050496041774749756) {
                                                            votes[1] += 1;
                                                        }

                                                        else {
                                                            votes[0] += 1;
                                                        }
                                                    }
                                                }
                                            }

                                            else {
                                                if (x[8] <= -0.661177933216095) {
                                                    if (x[2] <= -2.6346616744995117) {
                                                        if (x[5] <= 0.045140087051549926) {
                                                            votes[1] += 1;
                                                        }

                                                        else {
                                                            votes[0] += 1;
                                                        }
                                                    }

                                                    else {
                                                        if (x[11] <= -0.15850751847028732) {
                                                            votes[0] += 1;
                                                        }

                                                        else {
                                                            votes[0] += 1;
                                                        }
                                                    }
                                                }

                                                else {
                                                    if (x[1] <= -0.16497895121574402) {
                                                        if (x[11] <= -0.6342922747135162) {
                                                            votes[1] += 1;
                                                        }

                                                        else {
                                                            votes[1] += 1;
                                                        }
                                                    }

                                                    else {
                                                        if (x[3] <= -1.877159595489502) {
                                                            votes[1] += 1;
                                                        }

                                                        else {
                                                            votes[0] += 1;
                                                        }
                                                    }
                                                }
                                            }
                                        }
                                    }

                                    else {
                                        if (x[5] <= -0.6189458966255188) {
                                            if (x[7] <= -1.2610206007957458) {
                                                if (x[1] <= -3.5306763648986816) {
                                                    if (x[5] <= -0.7792425155639648) {
                                                        if (x[11] <= -0.29688315838575363) {
                                                            votes[1] += 1;
                                                        }

                                                        else {
                                                            votes[1] += 1;
                                                        }
                                                    }

                                                    else {
                                                        if (x[14] <= -0.47977569699287415) {
                                                            votes[1] += 1;
                                                        }

                                                        else {
                                                            votes[0] += 1;
                                                        }
                                                    }
                                                }

                                                else {
                                                    if (x[7] <= -2.2212060689926147) {
                                                        if (x[5] <= -1.3288309574127197) {
                                                            votes[1] += 1;
                                                        }

                                                        else {
                                                            votes[0] += 1;
                                                        }
                                                    }

                                                    else {
                                                        if (x[5] <= -1.1227352619171143) {
                                                            votes[0] += 1;
                                                        }

                                                        else {
                                                            votes[0] += 1;
                                                        }
                                                    }
                                                }
                                            }

                                            else {
                                                if (x[11] <= -0.685472309589386) {
                                                    if (x[8] <= 1.139460563659668) {
                                                        if (x[0] <= -1.7364628314971924) {
                                                            votes[1] += 1;
                                                        }

                                                        else {
                                                            votes[1] += 1;
                                                        }
                                                    }

                                                    else {
                                                        votes[0] += 1;
                                                    }
                                                }

                                                else {
                                                    if (x[1] <= -1.2878353595733643) {
                                                        if (x[0] <= -1.9605696201324463) {
                                                            votes[1] += 1;
                                                        }

                                                        else {
                                                            votes[0] += 1;
                                                        }
                                                    }

                                                    else {
                                                        if (x[4] <= -1.3272826075553894) {
                                                            votes[1] += 1;
                                                        }

                                                        else {
                                                            votes[0] += 1;
                                                        }
                                                    }
                                                }
                                            }
                                        }

                                        else {
                                            if (x[9] <= -0.142823725938797) {
                                                if (x[4] <= -0.5716175138950348) {
                                                    if (x[8] <= -0.18100765720009804) {
                                                        if (x[1] <= 1.0684400796890259) {
                                                            votes[0] += 1;
                                                        }

                                                        else {
                                                            votes[1] += 1;
                                                        }
                                                    }

                                                    else {
                                                        if (x[2] <= 0.05915047600865364) {
                                                            votes[0] += 1;
                                                        }

                                                        else {
                                                            votes[1] += 1;
                                                        }
                                                    }
                                                }

                                                else {
                                                    if (x[2] <= 0.7311675548553467) {
                                                        if (x[1] <= -4.428638458251953) {
                                                            votes[1] += 1;
                                                        }

                                                        else {
                                                            votes[0] += 1;
                                                        }
                                                    }

                                                    else {
                                                        if (x[12] <= -0.549995481967926) {
                                                            votes[1] += 1;
                                                        }

                                                        else {
                                                            votes[0] += 1;
                                                        }
                                                    }
                                                }
                                            }

                                            else {
                                                if (x[11] <= 0.4096856266260147) {
                                                    if (x[8] <= 0.2991625964641571) {
                                                        if (x[2] <= -0.1648552156984806) {
                                                            votes[0] += 1;
                                                        }

                                                        else {
                                                            votes[1] += 1;
                                                        }
                                                    }

                                                    else {
                                                        if (x[12] <= -0.7220751941204071) {
                                                            votes[1] += 1;
                                                        }

                                                        else {
                                                            votes[0] += 1;
                                                        }
                                                    }
                                                }

                                                else {
                                                    if (x[13] <= 0.42175227403640747) {
                                                        if (x[14] <= 0.8966902792453766) {
                                                            votes[1] += 1;
                                                        }

                                                        else {
                                                            votes[0] += 1;
                                                        }
                                                    }

                                                    else {
                                                        if (x[4] <= -1.1211920976638794) {
                                                            votes[1] += 1;
                                                        }

                                                        else {
                                                            votes[0] += 1;
                                                        }
                                                    }
                                                }
                                            }
                                        }
                                    }
                                }

                                else {
                                    if (x[3] <= -0.6177467107772827) {
                                        if (x[10] <= -1.1217969059944153) {
                                            if (x[7] <= 1.0194200277328491) {
                                                if (x[11] <= -1.2475048899650574) {
                                                    if (x[5] <= -0.6189458966255188) {
                                                        if (x[11] <= -1.2787815928459167) {
                                                            votes[1] += 1;
                                                        }

                                                        else {
                                                            votes[1] += 1;
                                                        }
                                                    }

                                                    else {
                                                        if (x[3] <= -1.3275976181030273) {
                                                            votes[1] += 1;
                                                        }

                                                        else {
                                                            votes[0] += 1;
                                                        }
                                                    }
                                                }

                                                else {
                                                    if (x[10] <= -1.2629881501197815) {
                                                        if (x[5] <= -0.6418454349040985) {
                                                            votes[1] += 1;
                                                        }

                                                        else {
                                                            votes[0] += 1;
                                                        }
                                                    }

                                                    else {
                                                        if (x[12] <= -0.10449020937085152) {
                                                            votes[1] += 1;
                                                        }

                                                        else {
                                                            votes[1] += 1;
                                                        }
                                                    }
                                                }
                                            }

                                            else {
                                                if (x[6] <= 1.13968163728714) {
                                                    if (x[4] <= -0.7777079939842224) {
                                                        if (x[11] <= -1.2010637521743774) {
                                                            votes[0] += 1;
                                                        }

                                                        else {
                                                            votes[1] += 1;
                                                        }
                                                    }

                                                    else {
                                                        votes[0] += 1;
                                                    }
                                                }

                                                else {
                                                    votes[0] += 1;
                                                }
                                            }
                                        }

                                        else {
                                            if (x[10] <= -0.7759256958961487) {
                                                if (x[5] <= -0.6189458966255188) {
                                                    if (x[6] <= 0.8995742499828339) {
                                                        if (x[4] <= -0.6174153983592987) {
                                                            votes[1] += 1;
                                                        }

                                                        else {
                                                            votes[0] += 1;
                                                        }
                                                    }

                                                    else {
                                                        if (x[14] <= -0.7123957872390747) {
                                                            votes[0] += 1;
                                                        }

                                                        else {
                                                            votes[0] += 1;
                                                        }
                                                    }
                                                }

                                                else {
                                                    if (x[7] <= 0.7793736159801483) {
                                                        if (x[10] <= -1.08199805021286) {
                                                            votes[0] += 1;
                                                        }

                                                        else {
                                                            votes[0] += 1;
                                                        }
                                                    }

                                                    else {
                                                        if (x[14] <= -0.37859082221984863) {
                                                            votes[0] += 1;
                                                        }

                                                        else {
                                                            votes[0] += 1;
                                                        }
                                                    }
                                                }
                                            }

                                            else {
                                                if (x[3] <= -1.8542611598968506) {
                                                    if (x[9] <= -0.14377137273550034) {
                                                        if (x[12] <= -0.7320715188980103) {
                                                            votes[0] += 1;
                                                        }

                                                        else {
                                                            votes[1] += 1;
                                                        }
                                                    }

                                                    else {
                                                        if (x[11] <= -0.7466040253639221) {
                                                            votes[1] += 1;
                                                        }

                                                        else {
                                                            votes[1] += 1;
                                                        }
                                                    }
                                                }

                                                else {
                                                    if (x[5] <= -1.8784193396568298) {
                                                        if (x[3] <= -1.258902370929718) {
                                                            votes[1] += 1;
                                                        }

                                                        else {
                                                            votes[0] += 1;
                                                        }
                                                    }

                                                    else {
                                                        if (x[2] <= 0.3953385055065155) {
                                                            votes[0] += 1;
                                                        }

                                                        else {
                                                            votes[0] += 1;
                                                        }
                                                    }
                                                }
                                            }
                                        }
                                    }

                                    else {
                                        if (x[13] <= -0.2565864771604538) {
                                            if (x[3] <= 0.16079942137002945) {
                                                if (x[3] <= -0.4345593899488449) {
                                                    if (x[9] <= -0.8412387669086456) {
                                                        if (x[5] <= -0.43574976921081543) {
                                                            votes[1] += 1;
                                                        }

                                                        else {
                                                            votes[0] += 1;
                                                        }
                                                    }

                                                    else {
                                                        if (x[10] <= -0.5494511723518372) {
                                                            votes[0] += 1;
                                                        }

                                                        else {
                                                            votes[0] += 1;
                                                        }
                                                    }
                                                }

                                                else {
                                                    if (x[5] <= -0.4815487861633301) {
                                                        if (x[9] <= -0.16177663952112198) {
                                                            votes[0] += 1;
                                                        }

                                                        else {
                                                            votes[0] += 1;
                                                        }
                                                    }

                                                    else {
                                                        if (x[8] <= 0.1791200302541256) {
                                                            votes[0] += 1;
                                                        }

                                                        else {
                                                            votes[0] += 1;
                                                        }
                                                    }
                                                }
                                            }

                                            else {
                                                if (x[3] <= 0.8019550740718842) {
                                                    if (x[5] <= 0.1596376746892929) {
                                                        if (x[10] <= 0.3175956606864929) {
                                                            votes[0] += 1;
                                                        }

                                                        else {
                                                            votes[1] += 1;
                                                        }
                                                    }

                                                    else {
                                                        if (x[4] <= 0.023754966037813574) {
                                                            votes[1] += 1;
                                                        }

                                                        else {
                                                            votes[1] += 1;
                                                        }
                                                    }
                                                }

                                                else {
                                                    if (x[9] <= 1.6709705591201782) {
                                                        if (x[5] <= -1.8784193396568298) {
                                                            votes[1] += 1;
                                                        }

                                                        else {
                                                            votes[0] += 1;
                                                        }
                                                    }

                                                    else {
                                                        if (x[12] <= 0.5135353207588196) {
                                                            votes[1] += 1;
                                                        }

                                                        else {
                                                            votes[0] += 1;
                                                        }
                                                    }
                                                }
                                            }
                                        }

                                        else {
                                            if (x[9] <= -1.0705690383911133) {
                                                if (x[4] <= -0.7090111672878265) {
                                                    if (x[3] <= -0.5719498693943024) {
                                                        if (x[14] <= -0.18618462979793549) {
                                                            votes[0] += 1;
                                                        }

                                                        else {
                                                            votes[0] += 1;
                                                        }
                                                    }

                                                    else {
                                                        if (x[1] <= 1.18043851852417) {
                                                            votes[0] += 1;
                                                        }

                                                        else {
                                                            votes[0] += 1;
                                                        }
                                                    }
                                                }

                                                else {
                                                    if (x[1] <= -0.7256892323493958) {
                                                        if (x[13] <= 0.5432548522949219) {
                                                            votes[0] += 1;
                                                        }

                                                        else {
                                                            votes[1] += 1;
                                                        }
                                                    }

                                                    else {
                                                        if (x[4] <= 0.2527443766593933) {
                                                            votes[0] += 1;
                                                        }

                                                        else {
                                                            votes[0] += 1;
                                                        }
                                                    }
                                                }
                                            }

                                            else {
                                                if (x[8] <= 0.1791200302541256) {
                                                    if (x[11] <= 0.8650931715965271) {
                                                        if (x[5] <= -0.7105439901351929) {
                                                            votes[0] += 1;
                                                        }

                                                        else {
                                                            votes[0] += 1;
                                                        }
                                                    }

                                                    else {
                                                        if (x[5] <= 0.8008241653442383) {
                                                            votes[1] += 1;
                                                        }

                                                        else {
                                                            votes[0] += 1;
                                                        }
                                                    }
                                                }

                                                else {
                                                    if (x[12] <= 2.741547703742981) {
                                                        if (x[4] <= -1.304383635520935) {
                                                            votes[1] += 1;
                                                        }

                                                        else {
                                                            votes[0] += 1;
                                                        }
                                                    }

                                                    else {
                                                        if (x[6] <= 0.7194937020540237) {
                                                            votes[1] += 1;
                                                        }

                                                        else {
                                                            votes[0] += 1;
                                                        }
                                                    }
                                                }
                                            }
                                        }
                                    }
                                }
                            }

                            else {
                                if (x[11] <= 1.0423277020454407) {
                                    if (x[14] <= -0.35814738273620605) {
                                        if (x[12] <= -0.35741668939590454) {
                                            if (x[11] <= 0.050951508805155754) {
                                                if (x[11] <= -1.0470498204231262) {
                                                    if (x[1] <= 1.2929754257202148) {
                                                        if (x[4] <= 0.6649253070354462) {
                                                            votes[1] += 1;
                                                        }

                                                        else {
                                                            votes[1] += 1;
                                                        }
                                                    }

                                                    else {
                                                        votes[0] += 1;
                                                    }
                                                }

                                                else {
                                                    if (x[9] <= -1.0250820517539978) {
                                                        votes[1] += 1;
                                                    }

                                                    else {
                                                        if (x[13] <= 0.8369265198707581) {
                                                            votes[0] += 1;
                                                        }

                                                        else {
                                                            votes[1] += 1;
                                                        }
                                                    }
                                                }
                                            }

                                            else {
                                                if (x[4] <= 1.0771062970161438) {
                                                    if (x[14] <= -0.7732099294662476) {
                                                        if (x[3] <= 0.5958693027496338) {
                                                            votes[0] += 1;
                                                        }

                                                        else {
                                                            votes[1] += 1;
                                                        }
                                                    }

                                                    else {
                                                        if (x[3] <= -1.9000580310821533) {
                                                            votes[1] += 1;
                                                        }

                                                        else {
                                                            votes[1] += 1;
                                                        }
                                                    }
                                                }

                                                else {
                                                    if (x[2] <= -0.2772170454263687) {
                                                        if (x[1] <= 0.7313677370548248) {
                                                            votes[1] += 1;
                                                        }

                                                        else {
                                                            votes[0] += 1;
                                                        }
                                                    }

                                                    else {
                                                        if (x[5] <= 0.6176280081272125) {
                                                            votes[0] += 1;
                                                        }

                                                        else {
                                                            votes[1] += 1;
                                                        }
                                                    }
                                                }
                                            }
                                        }

                                        else {
                                            if (x[11] <= -1.0285680890083313) {
                                                if (x[11] <= -1.2726210355758667) {
                                                    votes[0] += 1;
                                                }

                                                else {
                                                    if (x[1] <= -2.297257423400879) {
                                                        votes[0] += 1;
                                                    }

                                                    else {
                                                        if (x[5] <= 0.938221275806427) {
                                                            votes[1] += 1;
                                                        }

                                                        else {
                                                            votes[1] += 1;
                                                        }
                                                    }
                                                }
                                            }

                                            else {
                                                if (x[0] <= 0.731584221124649) {
                                                    if (x[5] <= -1.3288309574127197) {
                                                        if (x[6] <= 0.5394131690263748) {
                                                            votes[1] += 1;
                                                        }

                                                        else {
                                                            votes[1] += 1;
                                                        }
                                                    }

                                                    else {
                                                        if (x[5] <= 0.18253719061613083) {
                                                            votes[0] += 1;
                                                        }

                                                        else {
                                                            votes[0] += 1;
                                                        }
                                                    }
                                                }

                                                else {
                                                    if (x[8] <= 0.2991625964641571) {
                                                        if (x[7] <= -3.6614843606948853) {
                                                            votes[0] += 1;
                                                        }

                                                        else {
                                                            votes[1] += 1;
                                                        }
                                                    }

                                                    else {
                                                        if (x[5] <= -1.2601324319839478) {
                                                            votes[1] += 1;
                                                        }

                                                        else {
                                                            votes[0] += 1;
                                                        }
                                                    }
                                                }
                                            }
                                        }
                                    }

                                    else {
                                        if (x[5] <= -1.3288309574127197) {
                                            if (x[13] <= 0.5028248578310013) {
                                                if (x[4] <= 0.8023189604282379) {
                                                    if (x[11] <= -1.0124558806419373) {
                                                        votes[1] += 1;
                                                    }

                                                    else {
                                                        if (x[0] <= -1.0641427040100098) {
                                                            votes[1] += 1;
                                                        }

                                                        else {
                                                            votes[0] += 1;
                                                        }
                                                    }
                                                }

                                                else {
                                                    if (x[14] <= 1.0688250660896301) {
                                                        if (x[5] <= -1.4662280082702637) {
                                                            votes[1] += 1;
                                                        }

                                                        else {
                                                            votes[1] += 1;
                                                        }
                                                    }

                                                    else {
                                                        if (x[4] <= 1.0084094405174255) {
                                                            votes[0] += 1;
                                                        }

                                                        else {
                                                            votes[1] += 1;
                                                        }
                                                    }
                                                }
                                            }

                                            else {
                                                if (x[4] <= 0.733622133731842) {
                                                    if (x[10] <= -0.11403258144855499) {
                                                        if (x[12] <= 1.566735565662384) {
                                                            votes[1] += 1;
                                                        }

                                                        else {
                                                            votes[0] += 1;
                                                        }
                                                    }

                                                    else {
                                                        if (x[0] <= -1.512356162071228) {
                                                            votes[1] += 1;
                                                        }

                                                        else {
                                                            votes[0] += 1;
                                                        }
                                                    }
                                                }

                                                else {
                                                    if (x[7] <= 0.8993968069553375) {
                                                        if (x[14] <= 1.4332243204116821) {
                                                            votes[1] += 1;
                                                        }

                                                        else {
                                                            votes[1] += 1;
                                                        }
                                                    }

                                                    else {
                                                        if (x[10] <= -0.012166418135166168) {
                                                            votes[0] += 1;
                                                        }

                                                        else {
                                                            votes[1] += 1;
                                                        }
                                                    }
                                                }
                                            }
                                        }

                                        else {
                                            if (x[2] <= -1.2875760793685913) {
                                                if (x[6] <= 0.4193594604730606) {
                                                    if (x[2] <= -2.072134494781494) {
                                                        if (x[9] <= 0.5096304714679718) {
                                                            votes[0] += 1;
                                                        }

                                                        else {
                                                            votes[1] += 1;
                                                        }
                                                    }

                                                    else {
                                                        if (x[5] <= 0.7092260718345642) {
                                                            votes[0] += 1;
                                                        }

                                                        else {
                                                            votes[1] += 1;
                                                        }
                                                    }
                                                }

                                                else {
                                                    if (x[3] <= 0.7332598268985748) {
                                                        if (x[4] <= 0.9397126138210297) {
                                                            votes[0] += 1;
                                                        }

                                                        else {
                                                            votes[0] += 1;
                                                        }
                                                    }

                                                    else {
                                                        if (x[2] <= -2.970311164855957) {
                                                            votes[0] += 1;
                                                        }

                                                        else {
                                                            votes[0] += 1;
                                                        }
                                                    }
                                                }
                                            }

                                            else {
                                                if (x[13] <= 1.5154576301574707) {
                                                    if (x[5] <= 0.7321256101131439) {
                                                        if (x[5] <= -1.191433846950531) {
                                                            votes[0] += 1;
                                                        }

                                                        else {
                                                            votes[0] += 1;
                                                        }
                                                    }

                                                    else {
                                                        if (x[8] <= -1.3814332485198975) {
                                                            votes[0] += 1;
                                                        }

                                                        else {
                                                            votes[0] += 1;
                                                        }
                                                    }
                                                }

                                                else {
                                                    if (x[14] <= 2.69810152053833) {
                                                        if (x[5] <= 0.7092260718345642) {
                                                            votes[0] += 1;
                                                        }

                                                        else {
                                                            votes[0] += 1;
                                                        }
                                                    }

                                                    else {
                                                        votes[1] += 1;
                                                    }
                                                }
                                            }
                                        }
                                    }
                                }

                                else {
                                    if (x[8] <= 0.1791200302541256) {
                                        if (x[5] <= 0.7550251185894012) {
                                            if (x[11] <= 1.991527795791626) {
                                                if (x[10] <= 0.8283478617668152) {
                                                    if (x[1] <= -0.7256892323493958) {
                                                        votes[1] += 1;
                                                    }

                                                    else {
                                                        if (x[6] <= -0.9012312293052673) {
                                                            votes[0] += 1;
                                                        }

                                                        else {
                                                            votes[0] += 1;
                                                        }
                                                    }
                                                }

                                                else {
                                                    if (x[14] <= 0.9067551493644714) {
                                                        if (x[3] <= 1.1683297157287598) {
                                                            votes[1] += 1;
                                                        }

                                                        else {
                                                            votes[1] += 1;
                                                        }
                                                    }

                                                    else {
                                                        if (x[3] <= 1.3057201504707336) {
                                                            votes[0] += 1;
                                                        }

                                                        else {
                                                            votes[1] += 1;
                                                        }
                                                    }
                                                }
                                            }

                                            else {
                                                if (x[8] <= -2.1016886830329895) {
                                                    votes[0] += 1;
                                                }

                                                else {
                                                    if (x[12] <= 1.7187668681144714) {
                                                        if (x[5] <= -0.11515653319656849) {
                                                            votes[1] += 1;
                                                        }

                                                        else {
                                                            votes[1] += 1;
                                                        }
                                                    }

                                                    else {
                                                        votes[0] += 1;
                                                    }
                                                }
                                            }
                                        }

                                        else {
                                            if (x[13] <= 0.1180211715400219) {
                                                if (x[14] <= 0.6437786221504211) {
                                                    if (x[9] <= 0.5134210735559464) {
                                                        if (x[12] <= -0.4789728820323944) {
                                                            votes[1] += 1;
                                                        }

                                                        else {
                                                            votes[0] += 1;
                                                        }
                                                    }

                                                    else {
                                                        if (x[3] <= 1.5118059515953064) {
                                                            votes[1] += 1;
                                                        }

                                                        else {
                                                            votes[1] += 1;
                                                        }
                                                    }
                                                }

                                                else {
                                                    if (x[1] <= 0.731008768081665) {
                                                        if (x[8] <= -1.8015822172164917) {
                                                            votes[0] += 1;
                                                        }

                                                        else {
                                                            votes[0] += 1;
                                                        }
                                                    }

                                                    else {
                                                        if (x[12] <= -0.40820857137441635) {
                                                            votes[1] += 1;
                                                        }

                                                        else {
                                                            votes[0] += 1;
                                                        }
                                                    }
                                                }
                                            }

                                            else {
                                                if (x[4] <= 0.9397126138210297) {
                                                    if (x[1] <= 1.0677221417427063) {
                                                        if (x[5] <= 0.938221275806427) {
                                                            votes[0] += 1;
                                                        }

                                                        else {
                                                            votes[0] += 1;
                                                        }
                                                    }

                                                    else {
                                                        if (x[8] <= -2.9419866800308228) {
                                                            votes[1] += 1;
                                                        }

                                                        else {
                                                            votes[0] += 1;
                                                        }
                                                    }
                                                }

                                                else {
                                                    if (x[8] <= -1.141348123550415) {
                                                        if (x[6] <= -4.022627592086792) {
                                                            votes[0] += 1;
                                                        }

                                                        else {
                                                            votes[0] += 1;
                                                        }
                                                    }

                                                    else {
                                                        if (x[13] <= 2.001376748085022) {
                                                            votes[1] += 1;
                                                        }

                                                        else {
                                                            votes[1] += 1;
                                                        }
                                                    }
                                                }
                                            }
                                        }
                                    }

                                    else {
                                        if (x[14] <= 0.7753301858901978) {
                                            if (x[5] <= 1.167216420173645) {
                                                if (x[4] <= 1.1687020659446716) {
                                                    if (x[12] <= 1.1311861276626587) {
                                                        if (x[1] <= 1.7416872382164001) {
                                                            votes[1] += 1;
                                                        }

                                                        else {
                                                            votes[1] += 1;
                                                        }
                                                    }

                                                    else {
                                                        if (x[14] <= -0.7123957872390747) {
                                                            votes[1] += 1;
                                                        }

                                                        else {
                                                            votes[0] += 1;
                                                        }
                                                    }
                                                }

                                                else {
                                                    if (x[12] <= 1.6581610441207886) {
                                                        if (x[12] <= -0.7626226246356964) {
                                                            votes[1] += 1;
                                                        }

                                                        else {
                                                            votes[0] += 1;
                                                        }
                                                    }

                                                    else {
                                                        votes[1] += 1;
                                                    }
                                                }
                                            }

                                            else {
                                                if (x[0] <= -0.5015414357185364) {
                                                    if (x[13] <= 0.4217167943716049) {
                                                        if (x[1] <= 0.9550057053565979) {
                                                            votes[1] += 1;
                                                        }

                                                        else {
                                                            votes[0] += 1;
                                                        }
                                                    }

                                                    else {
                                                        if (x[4] <= 1.5808830261230469) {
                                                            votes[0] += 1;
                                                        }

                                                        else {
                                                            votes[1] += 1;
                                                        }
                                                    }
                                                }

                                                else {
                                                    if (x[6] <= 0.7795205414295197) {
                                                        if (x[10] <= 1.3253599405288696) {
                                                            votes[0] += 1;
                                                        }

                                                        else {
                                                            votes[0] += 1;
                                                        }
                                                    }

                                                    else {
                                                        if (x[5] <= 1.487809658050537) {
                                                            votes[1] += 1;
                                                        }

                                                        else {
                                                            votes[0] += 1;
                                                        }
                                                    }
                                                }
                                            }
                                        }

                                        else {
                                            if (x[5] <= 1.0069198310375214) {
                                                if (x[7] <= 1.0194200277328491) {
                                                    if (x[5] <= 0.6176280379295349) {
                                                        if (x[12] <= 1.8808858394622803) {
                                                            votes[1] += 1;
                                                        }

                                                        else {
                                                            votes[0] += 1;
                                                        }
                                                    }

                                                    else {
                                                        if (x[14] <= 2.4247413873672485) {
                                                            votes[0] += 1;
                                                        }

                                                        else {
                                                            votes[0] += 1;
                                                        }
                                                    }
                                                }

                                                else {
                                                    if (x[12] <= 1.9011873602867126) {
                                                        votes[1] += 1;
                                                    }

                                                    else {
                                                        votes[0] += 1;
                                                    }
                                                }
                                            }

                                            else {
                                                if (x[13] <= 1.8593706488609314) {
                                                    if (x[9] <= 0.16895177215337753) {
                                                        if (x[14] <= 1.8378830552101135) {
                                                            votes[0] += 1;
                                                        }

                                                        else {
                                                            votes[1] += 1;
                                                        }
                                                    }

                                                    else {
                                                        if (x[6] <= 0.2993057668209076) {
                                                            votes[0] += 1;
                                                        }

                                                        else {
                                                            votes[0] += 1;
                                                        }
                                                    }
                                                }

                                                else {
                                                    if (x[14] <= 1.8580127954483032) {
                                                        if (x[4] <= 1.0084094405174255) {
                                                            votes[0] += 1;
                                                        }

                                                        else {
                                                            votes[1] += 1;
                                                        }
                                                    }

                                                    else {
                                                        if (x[0] <= 0.05926406569778919) {
                                                            votes[1] += 1;
                                                        }

                                                        else {
                                                            votes[1] += 1;
                                                        }
                                                    }
                                                }
                                            }
                                        }
                                    }
                                }
                            }
                        }

                        // tree #2
                        if (x[14] <= -0.8237012028694153) {
                            if (x[8] <= -1.8616034984588623) {
                                if (x[5] <= -1.7868212461471558) {
                                    votes[1] += 1;
                                }

                                else {
                                    votes[0] += 1;
                                }
                            }

                            else {
                                if (x[11] <= 0.6452085673809052) {
                                    if (x[5] <= -0.9853381812572479) {
                                        if (x[10] <= -0.2410099357366562) {
                                            if (x[12] <= -1.0158225297927856) {
                                                votes[1] += 1;
                                            }

                                            else {
                                                if (x[11] <= 0.15852434933185577) {
                                                    votes[0] += 1;
                                                }

                                                else {
                                                    votes[1] += 1;
                                                }
                                            }
                                        }

                                        else {
                                            if (x[11] <= 0.1386210098862648) {
                                                if (x[12] <= -0.9550545513629913) {
                                                    votes[1] += 1;
                                                }

                                                else {
                                                    if (x[1] <= 0.39537235349416733) {
                                                        if (x[8] <= 0.11909875014680438) {
                                                            votes[1] += 1;
                                                        }

                                                        else {
                                                            votes[0] += 1;
                                                        }
                                                    }

                                                    else {
                                                        votes[0] += 1;
                                                    }
                                                }
                                            }

                                            else {
                                                if (x[5] <= -1.6723237037658691) {
